{
  "metadata": {
    "version": "0.2.0",
    "exported": "2025-07-01T16:48:18.927Z",
    "model": "attention",
    "format": "json"
  },
  "models": {
    "attention": {
      "layers": 11,
      "parameters": 114564,
      "weights": [
        0.366727966919832,
        0.3357862288487268,
        0.0258131691011938,
        0.006897189962822514,
        -0.04354948386343116,
        -0.17838959056730208,
        -0.09414741331221088,
        -0.30700671447105066,
        -0.4259591975832444,
        0.20310146379449923,
        0.36250728265297005,
        -0.19663308439623828,
        0.2583402783037394,
        0.4615468353373151,
        -0.3843401476651691,
        0.23388008046442965,
        -0.24835551987072657,
        0.32691504434590213,
        -0.30282930953581655,
        0.47759856076099383,
        0.10113851068027158,
        0.004187212655840433,
        -0.47983680764587433,
        -0.24899449735923151,
        0.2568212174076343,
        0.25044432370432035,
        -0.15153546976409982,
        0.3112681314940893,
        0.28424493892761293,
        0.02426070038736272,
        -0.24730169109303568,
        -0.3724368931093558,
        0.26866431758424336,
        -0.18967537066456108,
        0.3549827716017506,
        -0.0019313199146691051,
        -0.01017286255166705,
        -0.4570436439915746,
        -0.4473611736248657,
        -0.3488372409700178,
        0.18567818601815356,
        0.34422806703708875,
        -0.03700721214177127,
        0.3192108269695171,
        -0.011284130542954962,
        -0.045795101241049796,
        0.10929853591420313,
        0.07525497535180792,
        0.29370340869573486,
        0.3593165295020131,
        0.4938207783981101,
        0.35439109764126764,
        -0.40445229566907415,
        0.20004027428734616,
        0.02261736175946738,
        -0.06783922372122708,
        -0.06841319562890447,
        -0.2640713170481086,
        0.13482689141075044,
        0.3431445701167797,
        -0.1537004495121601,
        0.18704272835210478,
        0.35072152757183317,
        0.12884390839746906,
        -0.3175954411251152,
        -0.1576775489742479,
        0.4966370492252745,
        -0.27389197731911086,
        0.14279691982592269,
        -0.1740277045778038,
        0.39212287385985123,
        -0.11409058149286277,
        -0.34004680144029753,
        0.0644234243198718,
        0.033809803504730285,
        0.43068432370012344,
        0.25289221403938833,
        -0.08121511070621512,
        -0.31873219928966234,
        0.1631768851497879,
        0.03265155105689521,
        0.03870828843894336,
        -0.03965873065317749,
        0.32694437332062787,
        0.38089958201588003,
        0.09534390752456989,
        -0.09537194739210131,
        0.36519779381368367,
        -0.3136030932077598,
        0.38601315771589473,
        -0.4305250809137944,
        -0.10222475659207064,
        -0.2155880644813737,
        0.3390634040541458,
        -0.17674698831415636,
        0.4912958712261324,
        0.39844993176963506,
        0.4883713604661639,
        -0.22946222207101852,
        -0.33786361582036495
      ],
      "biases": [
        -0.03177617717754977,
        -0.4321766723866125,
        -0.1262669297037633,
        0.4268054532351382,
        0.37973860830461237,
        -0.061800898823512584,
        0.29638544971566083,
        0.23646927228247372,
        0.44965261420837654,
        -0.38739200528851603,
        -0.34265508897037655,
        -0.12048669638906695,
        0.0050886609484457335,
        0.0028497431486009805,
        -0.18560298460228952,
        -0.33647358738717603,
        -0.10218416318831425,
        -0.12134645278858947,
        0.2995815023485835,
        -0.3920516111011756,
        0.39338579198985046,
        0.2528839407806398,
        -0.2342283278696804,
        0.1301288781196399,
        -0.37299206580364697,
        0.2534586494755162,
        0.45702022654024543,
        -0.17724928871633905,
        -0.23156811164666968,
        -0.42872392940793236,
        -0.1990966668800047,
        -0.05792150734663504,
        0.4260626813454689,
        -0.259038015469524,
        0.29698659327350563,
        0.08788220949638026,
        0.019447907111543206,
        -0.32732269228763466,
        0.18697071404876642,
        -0.26490429054184395,
        -0.3393514478477617,
        -0.4597127291504626,
        0.05212720397710524,
        0.056344036661605035,
        -0.31681380522435165,
        0.47333042027756767,
        0.42859342435488124,
        0.18406554848936985,
        0.3969500843523064,
        0.2535101819780743
      ],
      "performance": {
        "accuracy": "90.89",
        "loss": "0.0391"
      }
    }
  }
}